digraph Tree {
node [shape=box] ;
0 [label="X[5] <= 2309.5\nentropy = 1.992\nsamples = 1122\nvalue = [331, 258, 259, 274]"] ;
1 [label="X[5] <= 1346.5\nentropy = 1.344\nsamples = 626\nvalue = [331, 234, 61, 0]"] ;
0 -> 1 [labeldistance=2.5, labelangle=45, headlabel="True"] ;
2 [label="X[0] <= 1344.0\nentropy = 0.599\nsamples = 364\nvalue = [311, 53, 0, 0]"] ;
1 -> 2 ;
3 [label="X[5] <= 1032.0\nentropy = 0.156\nsamples = 220\nvalue = [215, 5, 0, 0]"] ;
2 -> 3 ;
4 [label="entropy = 0.0\nsamples = 165\nvalue = [165, 0, 0, 0]"] ;
3 -> 4 ;
5 [label="X[4] <= 1248.0\nentropy = 0.439\nsamples = 55\nvalue = [50, 5, 0, 0]"] ;
3 -> 5 ;
6 [label="entropy = 0.0\nsamples = 32\nvalue = [32, 0, 0, 0]"] ;
5 -> 6 ;
7 [label="X[2] <= 2.5\nentropy = 0.755\nsamples = 23\nvalue = [18, 5, 0, 0]"] ;
5 -> 7 ;
8 [label="entropy = 0.0\nsamples = 7\nvalue = [7, 0, 0, 0]"] ;
7 -> 8 ;
9 [label="X[6] <= 105550.5\nentropy = 0.896\nsamples = 16\nvalue = [11, 5, 0, 0]"] ;
7 -> 9 ;
10 [label="X[6] <= 100605.0\nentropy = 0.98\nsamples = 12\nvalue = [7, 5, 0, 0]"] ;
9 -> 10 ;
11 [label="X[6] <= 11105.5\nentropy = 0.881\nsamples = 10\nvalue = [7, 3, 0, 0]"] ;
10 -> 11 ;
12 [label="X[0] <= 985.0\nentropy = 1.0\nsamples = 6\nvalue = [3, 3, 0, 0]"] ;
11 -> 12 ;
13 [label="X[3] <= 15.0\nentropy = 0.811\nsamples = 4\nvalue = [3, 1, 0, 0]"] ;
12 -> 13 ;
14 [label="entropy = 0.0\nsamples = 3\nvalue = [3, 0, 0, 0]"] ;
13 -> 14 ;
15 [label="entropy = 0.0\nsamples = 1\nvalue = [0, 1, 0, 0]"] ;
13 -> 15 ;
16 [label="entropy = 0.0\nsamples = 2\nvalue = [0, 2, 0, 0]"] ;
12 -> 16 ;
17 [label="entropy = 0.0\nsamples = 4\nvalue = [4, 0, 0, 0]"] ;
11 -> 17 ;
18 [label="entropy = 0.0\nsamples = 2\nvalue = [0, 2, 0, 0]"] ;
10 -> 18 ;
19 [label="entropy = 0.0\nsamples = 4\nvalue = [4, 0, 0, 0]"] ;
9 -> 19 ;
20 [label="X[5] <= 830.5\nentropy = 0.918\nsamples = 144\nvalue = [96, 48, 0, 0]"] ;
2 -> 20 ;
21 [label="X[4] <= 1594.5\nentropy = 0.496\nsamples = 92\nvalue = [82, 10, 0, 0]"] ;
20 -> 21 ;
22 [label="entropy = 0.0\nsamples = 69\nvalue = [69, 0, 0, 0]"] ;
21 -> 22 ;
23 [label="X[5] <= 544.0\nentropy = 0.988\nsamples = 23\nvalue = [13, 10, 0, 0]"] ;
21 -> 23 ;
24 [label="entropy = 0.0\nsamples = 9\nvalue = [9, 0, 0, 0]"] ;
23 -> 24 ;
25 [label="X[0] <= 1548.0\nentropy = 0.863\nsamples = 14\nvalue = [4, 10, 0, 0]"] ;
23 -> 25 ;
26 [label="entropy = 0.0\nsamples = 3\nvalue = [3, 0, 0, 0]"] ;
25 -> 26 ;
27 [label="X[5] <= 758.0\nentropy = 0.439\nsamples = 11\nvalue = [1, 10, 0, 0]"] ;
25 -> 27 ;
28 [label="entropy = 0.0\nsamples = 10\nvalue = [0, 10, 0, 0]"] ;
27 -> 28 ;
29 [label="entropy = 0.0\nsamples = 1\nvalue = [1, 0, 0, 0]"] ;
27 -> 29 ;
30 [label="X[4] <= 1235.5\nentropy = 0.84\nsamples = 52\nvalue = [14, 38, 0, 0]"] ;
20 -> 30 ;
31 [label="X[5] <= 1151.5\nentropy = 0.976\nsamples = 22\nvalue = [13, 9, 0, 0]"] ;
30 -> 31 ;
32 [label="X[4] <= 856.5\nentropy = 0.722\nsamples = 15\nvalue = [12, 3, 0, 0]"] ;
31 -> 32 ;
33 [label="entropy = 0.0\nsamples = 8\nvalue = [8, 0, 0, 0]"] ;
32 -> 33 ;
34 [label="X[3] <= 12.0\nentropy = 0.985\nsamples = 7\nvalue = [4, 3, 0, 0]"] ;
32 -> 34 ;
35 [label="X[2] <= 3.0\nentropy = 0.811\nsamples = 4\nvalue = [1, 3, 0, 0]"] ;
34 -> 35 ;
36 [label="entropy = 0.0\nsamples = 1\nvalue = [1, 0, 0, 0]"] ;
35 -> 36 ;
37 [label="entropy = 0.0\nsamples = 3\nvalue = [0, 3, 0, 0]"] ;
35 -> 37 ;
38 [label="entropy = 0.0\nsamples = 3\nvalue = [3, 0, 0, 0]"] ;
34 -> 38 ;
39 [label="X[0] <= 1378.5\nentropy = 0.592\nsamples = 7\nvalue = [1, 6, 0, 0]"] ;
31 -> 39 ;
40 [label="entropy = 0.0\nsamples = 1\nvalue = [1, 0, 0, 0]"] ;
39 -> 40 ;
41 [label="entropy = 0.0\nsamples = 6\nvalue = [0, 6, 0, 0]"] ;
39 -> 41 ;
42 [label="X[5] <= 902.5\nentropy = 0.211\nsamples = 30\nvalue = [1, 29, 0, 0]"] ;
30 -> 42 ;
43 [label="X[5] <= 871.0\nentropy = 0.722\nsamples = 5\nvalue = [1, 4, 0, 0]"] ;
42 -> 43 ;
44 [label="entropy = 0.0\nsamples = 4\nvalue = [0, 4, 0, 0]"] ;
43 -> 44 ;
45 [label="entropy = 0.0\nsamples = 1\nvalue = [1, 0, 0, 0]"] ;
43 -> 45 ;
46 [label="entropy = 0.0\nsamples = 25\nvalue = [0, 25, 0, 0]"] ;
42 -> 46 ;
47 [label="X[0] <= 1402.0\nentropy = 1.141\nsamples = 262\nvalue = [20, 181, 61, 0]"] ;
1 -> 47 ;
48 [label="X[5] <= 1736.0\nentropy = 0.917\nsamples = 170\nvalue = [20, 136, 14, 0]"] ;
47 -> 48 ;
49 [label="X[4] <= 1362.0\nentropy = 1.038\nsamples = 59\nvalue = [20, 38, 1, 0]"] ;
48 -> 49 ;
50 [label="X[0] <= 964.5\nentropy = 0.985\nsamples = 35\nvalue = [20, 15, 0, 0]"] ;
49 -> 50 ;
51 [label="X[5] <= 1531.0\nentropy = 0.667\nsamples = 23\nvalue = [19, 4, 0, 0]"] ;
50 -> 51 ;
52 [label="entropy = 0.0\nsamples = 13\nvalue = [13, 0, 0, 0]"] ;
51 -> 52 ;
53 [label="X[5] <= 1604.0\nentropy = 0.971\nsamples = 10\nvalue = [6, 4, 0, 0]"] ;
51 -> 53 ;
54 [label="entropy = 0.0\nsamples = 2\nvalue = [0, 2, 0, 0]"] ;
53 -> 54 ;
55 [label="X[3] <= 7.0\nentropy = 0.811\nsamples = 8\nvalue = [6, 2, 0, 0]"] ;
53 -> 55 ;
56 [label="entropy = 0.0\nsamples = 2\nvalue = [0, 2, 0, 0]"] ;
55 -> 56 ;
57 [label="entropy = 0.0\nsamples = 6\nvalue = [6, 0, 0, 0]"] ;
55 -> 57 ;
58 [label="X[3] <= 3.5\nentropy = 0.414\nsamples = 12\nvalue = [1, 11, 0, 0]"] ;
50 -> 58 ;
59 [label="entropy = 0.0\nsamples = 1\nvalue = [1, 0, 0, 0]"] ;
58 -> 59 ;
60 [label="entropy = 0.0\nsamples = 11\nvalue = [0, 11, 0, 0]"] ;
58 -> 60 ;
61 [label="X[4] <= 1957.0\nentropy = 0.25\nsamples = 24\nvalue = [0, 23, 1, 0]"] ;
49 -> 61 ;
62 [label="entropy = 0.0\nsamples = 23\nvalue = [0, 23, 0, 0]"] ;
61 -> 62 ;
63 [label="entropy = 0.0\nsamples = 1\nvalue = [0, 0, 1, 0]"] ;
61 -> 63 ;
64 [label="X[4] <= 1328.0\nentropy = 0.521\nsamples = 111\nvalue = [0, 98, 13, 0]"] ;
48 -> 64 ;
65 [label="entropy = 0.0\nsamples = 68\nvalue = [0, 68, 0, 0]"] ;
64 -> 65 ;
66 [label="X[0] <= 910.5\nentropy = 0.884\nsamples = 43\nvalue = [0, 30, 13, 0]"] ;
64 -> 66 ;
67 [label="X[3] <= 19.5\nentropy = 0.276\nsamples = 21\nvalue = [0, 20, 1, 0]"] ;
66 -> 67 ;
68 [label="entropy = 0.0\nsamples = 19\nvalue = [0, 19, 0, 0]"] ;
67 -> 68 ;
69 [label="X[5] <= 2101.0\nentropy = 1.0\nsamples = 2\nvalue = [0, 1, 1, 0]"] ;
67 -> 69 ;
70 [label="entropy = 0.0\nsamples = 1\nvalue = [0, 1, 0, 0]"] ;
69 -> 70 ;
71 [label="entropy = 0.0\nsamples = 1\nvalue = [0, 0, 1, 0]"] ;
69 -> 71 ;
72 [label="X[4] <= 1904.5\nentropy = 0.994\nsamples = 22\nvalue = [0, 10, 12, 0]"] ;
66 -> 72 ;
73 [label="X[3] <= 11.5\nentropy = 0.918\nsamples = 18\nvalue = [0, 6, 12, 0]"] ;
72 -> 73 ;
74 [label="X[0] <= 1204.5\nentropy = 1.0\nsamples = 12\nvalue = [0, 6, 6, 0]"] ;
73 -> 74 ;
75 [label="X[5] <= 2008.0\nentropy = 0.918\nsamples = 9\nvalue = [0, 6, 3, 0]"] ;
74 -> 75 ;
76 [label="entropy = 0.0\nsamples = 4\nvalue = [0, 4, 0, 0]"] ;
75 -> 76 ;
77 [label="X[0] <= 1007.0\nentropy = 0.971\nsamples = 5\nvalue = [0, 2, 3, 0]"] ;
75 -> 77 ;
78 [label="entropy = 0.0\nsamples = 2\nvalue = [0, 0, 2, 0]"] ;
77 -> 78 ;
79 [label="X[0] <= 1087.0\nentropy = 0.918\nsamples = 3\nvalue = [0, 2, 1, 0]"] ;
77 -> 79 ;
80 [label="entropy = 0.0\nsamples = 2\nvalue = [0, 2, 0, 0]"] ;
79 -> 80 ;
81 [label="entropy = 0.0\nsamples = 1\nvalue = [0, 0, 1, 0]"] ;
79 -> 81 ;
82 [label="entropy = 0.0\nsamples = 3\nvalue = [0, 0, 3, 0]"] ;
74 -> 82 ;
83 [label="entropy = 0.0\nsamples = 6\nvalue = [0, 0, 6, 0]"] ;
73 -> 83 ;
84 [label="entropy = 0.0\nsamples = 4\nvalue = [0, 4, 0, 0]"] ;
72 -> 84 ;
85 [label="X[5] <= 1945.5\nentropy = 1.0\nsamples = 92\nvalue = [0, 45, 47, 0]"] ;
47 -> 85 ;
86 [label="X[4] <= 1278.0\nentropy = 0.831\nsamples = 57\nvalue = [0, 42, 15, 0]"] ;
85 -> 86 ;
87 [label="X[5] <= 1873.5\nentropy = 0.211\nsamples = 30\nvalue = [0, 29, 1, 0]"] ;
86 -> 87 ;
88 [label="entropy = 0.0\nsamples = 26\nvalue = [0, 26, 0, 0]"] ;
87 -> 88 ;
89 [label="X[5] <= 1885.5\nentropy = 0.811\nsamples = 4\nvalue = [0, 3, 1, 0]"] ;
87 -> 89 ;
90 [label="entropy = 0.0\nsamples = 1\nvalue = [0, 0, 1, 0]"] ;
89 -> 90 ;
91 [label="entropy = 0.0\nsamples = 3\nvalue = [0, 3, 0, 0]"] ;
89 -> 91 ;
92 [label="X[5] <= 1495.0\nentropy = 0.999\nsamples = 27\nvalue = [0, 13, 14, 0]"] ;
86 -> 92 ;
93 [label="entropy = 0.0\nsamples = 9\nvalue = [0, 9, 0, 0]"] ;
92 -> 93 ;
94 [label="X[0] <= 1714.0\nentropy = 0.764\nsamples = 18\nvalue = [0, 4, 14, 0]"] ;
92 -> 94 ;
95 [label="X[4] <= 1661.0\nentropy = 0.946\nsamples = 11\nvalue = [0, 4, 7, 0]"] ;
94 -> 95 ;
96 [label="entropy = 0.0\nsamples = 2\nvalue = [0, 2, 0, 0]"] ;
95 -> 96 ;
97 [label="X[5] <= 1555.5\nentropy = 0.764\nsamples = 9\nvalue = [0, 2, 7, 0]"] ;
95 -> 97 ;
98 [label="X[1] <= 52.5\nentropy = 1.0\nsamples = 4\nvalue = [0, 2, 2, 0]"] ;
97 -> 98 ;
99 [label="entropy = 0.0\nsamples = 2\nvalue = [0, 2, 0, 0]"] ;
98 -> 99 ;
100 [label="entropy = 0.0\nsamples = 2\nvalue = [0, 0, 2, 0]"] ;
98 -> 100 ;
101 [label="entropy = 0.0\nsamples = 5\nvalue = [0, 0, 5, 0]"] ;
97 -> 101 ;
102 [label="entropy = 0.0\nsamples = 7\nvalue = [0, 0, 7, 0]"] ;
94 -> 102 ;
103 [label="X[4] <= 897.5\nentropy = 0.422\nsamples = 35\nvalue = [0, 3, 32, 0]"] ;
85 -> 103 ;
104 [label="X[3] <= 9.5\nentropy = 0.985\nsamples = 7\nvalue = [0, 3, 4, 0]"] ;
103 -> 104 ;
105 [label="entropy = 0.0\nsamples = 3\nvalue = [0, 0, 3, 0]"] ;
104 -> 105 ;
106 [label="X[4] <= 622.0\nentropy = 0.811\nsamples = 4\nvalue = [0, 3, 1, 0]"] ;
104 -> 106 ;
107 [label="entropy = 0.0\nsamples = 1\nvalue = [0, 0, 1, 0]"] ;
106 -> 107 ;
108 [label="entropy = 0.0\nsamples = 3\nvalue = [0, 3, 0, 0]"] ;
106 -> 108 ;
109 [label="entropy = 0.0\nsamples = 28\nvalue = [0, 0, 28, 0]"] ;
103 -> 109 ;
110 [label="X[5] <= 3015.0\nentropy = 1.213\nsamples = 496\nvalue = [0, 24, 198, 274]"] ;
0 -> 110 [labeldistance=2.5, labelangle=-45, headlabel="False"] ;
111 [label="X[4] <= 1290.5\nentropy = 1.078\nsamples = 206\nvalue = [0, 24, 153, 29]"] ;
110 -> 111 ;
112 [label="X[0] <= 1386.5\nentropy = 0.843\nsamples = 115\nvalue = [0, 23, 90, 2]"] ;
111 -> 112 ;
113 [label="X[5] <= 2755.0\nentropy = 0.933\nsamples = 66\nvalue = [0, 23, 43, 0]"] ;
112 -> 113 ;
114 [label="X[0] <= 923.0\nentropy = 0.996\nsamples = 43\nvalue = [0, 23, 20, 0]"] ;
113 -> 114 ;
115 [label="X[5] <= 2661.0\nentropy = 0.61\nsamples = 20\nvalue = [0, 17, 3, 0]"] ;
114 -> 115 ;
116 [label="entropy = 0.0\nsamples = 15\nvalue = [0, 15, 0, 0]"] ;
115 -> 116 ;
117 [label="X[6] <= 10110.5\nentropy = 0.971\nsamples = 5\nvalue = [0, 2, 3, 0]"] ;
115 -> 117 ;
118 [label="entropy = 0.0\nsamples = 2\nvalue = [0, 2, 0, 0]"] ;
117 -> 118 ;
119 [label="entropy = 0.0\nsamples = 3\nvalue = [0, 0, 3, 0]"] ;
117 -> 119 ;
120 [label="X[4] <= 818.5\nentropy = 0.828\nsamples = 23\nvalue = [0, 6, 17, 0]"] ;
114 -> 120 ;
121 [label="X[6] <= 5611.0\nentropy = 0.971\nsamples = 10\nvalue = [0, 6, 4, 0]"] ;
120 -> 121 ;
122 [label="entropy = 0.0\nsamples = 3\nvalue = [0, 0, 3, 0]"] ;
121 -> 122 ;
123 [label="X[2] <= 5.5\nentropy = 0.592\nsamples = 7\nvalue = [0, 6, 1, 0]"] ;
121 -> 123 ;
124 [label="entropy = 0.0\nsamples = 1\nvalue = [0, 0, 1, 0]"] ;
123 -> 124 ;
125 [label="entropy = 0.0\nsamples = 6\nvalue = [0, 6, 0, 0]"] ;
123 -> 125 ;
126 [label="entropy = 0.0\nsamples = 13\nvalue = [0, 0, 13, 0]"] ;
120 -> 126 ;
127 [label="entropy = 0.0\nsamples = 23\nvalue = [0, 0, 23, 0]"] ;
113 -> 127 ;
128 [label="X[5] <= 2864.0\nentropy = 0.246\nsamples = 49\nvalue = [0, 0, 47, 2]"] ;
112 -> 128 ;
129 [label="entropy = 0.0\nsamples = 42\nvalue = [0, 0, 42, 0]"] ;
128 -> 129 ;
130 [label="X[3] <= 6.0\nentropy = 0.863\nsamples = 7\nvalue = [0, 0, 5, 2]"] ;
128 -> 130 ;
131 [label="entropy = 0.0\nsamples = 2\nvalue = [0, 0, 0, 2]"] ;
130 -> 131 ;
132 [label="entropy = 0.0\nsamples = 5\nvalue = [0, 0, 5, 0]"] ;
130 -> 132 ;
133 [label="X[0] <= 1321.5\nentropy = 0.959\nsamples = 91\nvalue = [0, 1, 63, 27]"] ;
111 -> 133 ;
134 [label="X[4] <= 1792.0\nentropy = 0.486\nsamples = 58\nvalue = [0, 1, 53, 4]"] ;
133 -> 134 ;
135 [label="X[5] <= 2332.5\nentropy = 0.156\nsamples = 44\nvalue = [0, 1, 43, 0]"] ;
134 -> 135 ;
136 [label="X[1] <= 28.0\nentropy = 1.0\nsamples = 2\nvalue = [0, 1, 1, 0]"] ;
135 -> 136 ;
137 [label="entropy = 0.0\nsamples = 1\nvalue = [0, 1, 0, 0]"] ;
136 -> 137 ;
138 [label="entropy = 0.0\nsamples = 1\nvalue = [0, 0, 1, 0]"] ;
136 -> 138 ;
139 [label="entropy = 0.0\nsamples = 42\nvalue = [0, 0, 42, 0]"] ;
135 -> 139 ;
140 [label="X[5] <= 2845.0\nentropy = 0.863\nsamples = 14\nvalue = [0, 0, 10, 4]"] ;
134 -> 140 ;
141 [label="X[6] <= 10110.5\nentropy = 0.65\nsamples = 12\nvalue = [0, 0, 10, 2]"] ;
140 -> 141 ;
142 [label="X[6] <= 10105.5\nentropy = 0.918\nsamples = 6\nvalue = [0, 0, 4, 2]"] ;
141 -> 142 ;
143 [label="X[2] <= 2.0\nentropy = 0.722\nsamples = 5\nvalue = [0, 0, 4, 1]"] ;
142 -> 143 ;
144 [label="entropy = 0.0\nsamples = 1\nvalue = [0, 0, 0, 1]"] ;
143 -> 144 ;
145 [label="entropy = 0.0\nsamples = 4\nvalue = [0, 0, 4, 0]"] ;
143 -> 145 ;
146 [label="entropy = 0.0\nsamples = 1\nvalue = [0, 0, 0, 1]"] ;
142 -> 146 ;
147 [label="entropy = 0.0\nsamples = 6\nvalue = [0, 0, 6, 0]"] ;
141 -> 147 ;
148 [label="entropy = 0.0\nsamples = 2\nvalue = [0, 0, 0, 2]"] ;
140 -> 148 ;
149 [label="X[5] <= 2456.5\nentropy = 0.885\nsamples = 33\nvalue = [0, 0, 10, 23]"] ;
133 -> 149 ;
150 [label="X[0] <= 1857.0\nentropy = 0.544\nsamples = 8\nvalue = [0, 0, 7, 1]"] ;
149 -> 150 ;
151 [label="entropy = 0.0\nsamples = 7\nvalue = [0, 0, 7, 0]"] ;
150 -> 151 ;
152 [label="entropy = 0.0\nsamples = 1\nvalue = [0, 0, 0, 1]"] ;
150 -> 152 ;
153 [label="X[2] <= 4.5\nentropy = 0.529\nsamples = 25\nvalue = [0, 0, 3, 22]"] ;
149 -> 153 ;
154 [label="X[5] <= 2756.5\nentropy = 0.811\nsamples = 12\nvalue = [0, 0, 3, 9]"] ;
153 -> 154 ;
155 [label="X[0] <= 1817.5\nentropy = 0.971\nsamples = 5\nvalue = [0, 0, 3, 2]"] ;
154 -> 155 ;
156 [label="entropy = 0.0\nsamples = 3\nvalue = [0, 0, 3, 0]"] ;
155 -> 156 ;
157 [label="entropy = 0.0\nsamples = 2\nvalue = [0, 0, 0, 2]"] ;
155 -> 157 ;
158 [label="entropy = 0.0\nsamples = 7\nvalue = [0, 0, 0, 7]"] ;
154 -> 158 ;
159 [label="entropy = 0.0\nsamples = 13\nvalue = [0, 0, 0, 13]"] ;
153 -> 159 ;
160 [label="X[0] <= 1251.5\nentropy = 0.623\nsamples = 290\nvalue = [0, 0, 45, 245]"] ;
110 -> 160 ;
161 [label="X[5] <= 3665.0\nentropy = 0.889\nsamples = 137\nvalue = [0, 0, 42, 95]"] ;
160 -> 161 ;
162 [label="X[4] <= 1029.5\nentropy = 0.986\nsamples = 93\nvalue = [0, 0, 40, 53]"] ;
161 -> 162 ;
163 [label="X[5] <= 3391.5\nentropy = 0.592\nsamples = 28\nvalue = [0, 0, 24, 4]"] ;
162 -> 163 ;
164 [label="entropy = 0.0\nsamples = 16\nvalue = [0, 0, 16, 0]"] ;
163 -> 164 ;
165 [label="X[0] <= 897.5\nentropy = 0.918\nsamples = 12\nvalue = [0, 0, 8, 4]"] ;
163 -> 165 ;
166 [label="X[6] <= 105.0\nentropy = 0.503\nsamples = 9\nvalue = [0, 0, 8, 1]"] ;
165 -> 166 ;
167 [label="entropy = 0.0\nsamples = 1\nvalue = [0, 0, 0, 1]"] ;
166 -> 167 ;
168 [label="entropy = 0.0\nsamples = 8\nvalue = [0, 0, 8, 0]"] ;
166 -> 168 ;
169 [label="entropy = 0.0\nsamples = 3\nvalue = [0, 0, 0, 3]"] ;
165 -> 169 ;
170 [label="X[3] <= 13.5\nentropy = 0.805\nsamples = 65\nvalue = [0, 0, 16, 49]"] ;
162 -> 170 ;
171 [label="X[4] <= 1800.5\nentropy = 0.904\nsamples = 50\nvalue = [0, 0, 16, 34]"] ;
170 -> 171 ;
172 [label="X[5] <= 3463.5\nentropy = 0.977\nsamples = 39\nvalue = [0, 0, 16, 23]"] ;
171 -> 172 ;
173 [label="X[0] <= 1009.5\nentropy = 0.999\nsamples = 33\nvalue = [0, 0, 16, 17]"] ;
172 -> 173 ;
174 [label="X[3] <= 9.5\nentropy = 0.918\nsamples = 21\nvalue = [0, 0, 14, 7]"] ;
173 -> 174 ;
175 [label="X[5] <= 3213.5\nentropy = 0.997\nsamples = 15\nvalue = [0, 0, 8, 7]"] ;
174 -> 175 ;
176 [label="entropy = 0.0\nsamples = 5\nvalue = [0, 0, 5, 0]"] ;
175 -> 176 ;
177 [label="X[5] <= 3392.5\nentropy = 0.881\nsamples = 10\nvalue = [0, 0, 3, 7]"] ;
175 -> 177 ;
178 [label="entropy = 0.0\nsamples = 5\nvalue = [0, 0, 0, 5]"] ;
177 -> 178 ;
179 [label="X[6] <= 11105.5\nentropy = 0.971\nsamples = 5\nvalue = [0, 0, 3, 2]"] ;
177 -> 179 ;
180 [label="entropy = 0.0\nsamples = 2\nvalue = [0, 0, 2, 0]"] ;
179 -> 180 ;
181 [label="X[1] <= 29.0\nentropy = 0.918\nsamples = 3\nvalue = [0, 0, 1, 2]"] ;
179 -> 181 ;
182 [label="entropy = 0.0\nsamples = 1\nvalue = [0, 0, 1, 0]"] ;
181 -> 182 ;
183 [label="entropy = 0.0\nsamples = 2\nvalue = [0, 0, 0, 2]"] ;
181 -> 183 ;
184 [label="entropy = 0.0\nsamples = 6\nvalue = [0, 0, 6, 0]"] ;
174 -> 184 ;
185 [label="X[2] <= 5.5\nentropy = 0.65\nsamples = 12\nvalue = [0, 0, 2, 10]"] ;
173 -> 185 ;
186 [label="X[6] <= 605.5\nentropy = 0.439\nsamples = 11\nvalue = [0, 0, 1, 10]"] ;
185 -> 186 ;
187 [label="X[0] <= 1141.5\nentropy = 1.0\nsamples = 2\nvalue = [0, 0, 1, 1]"] ;
186 -> 187 ;
188 [label="entropy = 0.0\nsamples = 1\nvalue = [0, 0, 0, 1]"] ;
187 -> 188 ;
189 [label="entropy = 0.0\nsamples = 1\nvalue = [0, 0, 1, 0]"] ;
187 -> 189 ;
190 [label="entropy = 0.0\nsamples = 9\nvalue = [0, 0, 0, 9]"] ;
186 -> 190 ;
191 [label="entropy = 0.0\nsamples = 1\nvalue = [0, 0, 1, 0]"] ;
185 -> 191 ;
192 [label="entropy = 0.0\nsamples = 6\nvalue = [0, 0, 0, 6]"] ;
172 -> 192 ;
193 [label="entropy = 0.0\nsamples = 11\nvalue = [0, 0, 0, 11]"] ;
171 -> 193 ;
194 [label="entropy = 0.0\nsamples = 15\nvalue = [0, 0, 0, 15]"] ;
170 -> 194 ;
195 [label="X[0] <= 642.0\nentropy = 0.267\nsamples = 44\nvalue = [0, 0, 2, 42]"] ;
161 -> 195 ;
196 [label="X[2] <= 2.5\nentropy = 0.863\nsamples = 7\nvalue = [0, 0, 2, 5]"] ;
195 -> 196 ;
197 [label="entropy = 0.0\nsamples = 2\nvalue = [0, 0, 2, 0]"] ;
196 -> 197 ;
198 [label="entropy = 0.0\nsamples = 5\nvalue = [0, 0, 0, 5]"] ;
196 -> 198 ;
199 [label="entropy = 0.0\nsamples = 37\nvalue = [0, 0, 0, 37]"] ;
195 -> 199 ;
200 [label="X[5] <= 3192.0\nentropy = 0.139\nsamples = 153\nvalue = [0, 0, 3, 150]"] ;
160 -> 200 ;
201 [label="X[0] <= 1622.5\nentropy = 0.575\nsamples = 22\nvalue = [0, 0, 3, 19]"] ;
200 -> 201 ;
202 [label="X[2] <= 2.0\nentropy = 0.881\nsamples = 10\nvalue = [0, 0, 3, 7]"] ;
201 -> 202 ;
203 [label="entropy = 0.0\nsamples = 2\nvalue = [0, 0, 2, 0]"] ;
202 -> 203 ;
204 [label="X[5] <= 3174.5\nentropy = 0.544\nsamples = 8\nvalue = [0, 0, 1, 7]"] ;
202 -> 204 ;
205 [label="entropy = 0.0\nsamples = 7\nvalue = [0, 0, 0, 7]"] ;
204 -> 205 ;
206 [label="entropy = 0.0\nsamples = 1\nvalue = [0, 0, 1, 0]"] ;
204 -> 206 ;
207 [label="entropy = 0.0\nsamples = 12\nvalue = [0, 0, 0, 12]"] ;
201 -> 207 ;
208 [label="entropy = 0.0\nsamples = 131\nvalue = [0, 0, 0, 131]"] ;
200 -> 208 ;
}
