digraph Tree {
node [shape=box] ;
0 [label="X[13] <= 2247.0\nentropy = 2.0\nsamples = 1400\nvalue = [341, 354, 353, 352]"] ;
1 [label="X[13] <= 1106.0\nentropy = 1.371\nsamples = 731\nvalue = [341, 316, 74, 0]"] ;
0 -> 1 [labeldistance=2.5, labelangle=45, headlabel="True"] ;
2 [label="X[12] <= 1332.5\nentropy = 0.5\nsamples = 309\nvalue = [275, 34, 0, 0]"] ;
1 -> 2 ;
3 [label="X[13] <= 936.5\nentropy = 0.129\nsamples = 168\nvalue = [165, 3, 0, 0]"] ;
2 -> 3 ;
4 [label="entropy = 0.0\nsamples = 133\nvalue = [133, 0, 0, 0]"] ;
3 -> 4 ;
5 [label="X[0] <= 1787.5\nentropy = 0.422\nsamples = 35\nvalue = [32, 3, 0, 0]"] ;
3 -> 5 ;
6 [label="X[15] <= 0.5\nentropy = 0.196\nsamples = 33\nvalue = [32, 1, 0, 0]"] ;
5 -> 6 ;
7 [label="X[17] <= 0.5\nentropy = 0.918\nsamples = 3\nvalue = [2, 1, 0, 0]"] ;
6 -> 7 ;
8 [label="entropy = 0.0\nsamples = 2\nvalue = [2, 0, 0, 0]"] ;
7 -> 8 ;
9 [label="entropy = 0.0\nsamples = 1\nvalue = [0, 1, 0, 0]"] ;
7 -> 9 ;
10 [label="entropy = 0.0\nsamples = 30\nvalue = [30, 0, 0, 0]"] ;
6 -> 10 ;
11 [label="entropy = 0.0\nsamples = 2\nvalue = [0, 2, 0, 0]"] ;
5 -> 11 ;
12 [label="X[0] <= 1420.5\nentropy = 0.76\nsamples = 141\nvalue = [110, 31, 0, 0]"] ;
2 -> 12 ;
13 [label="X[13] <= 954.0\nentropy = 0.368\nsamples = 85\nvalue = [79, 6, 0, 0]"] ;
12 -> 13 ;
14 [label="X[16] <= 2.5\nentropy = 0.104\nsamples = 73\nvalue = [72, 1, 0, 0]"] ;
13 -> 14 ;
15 [label="X[20] <= 51110.5\nentropy = 0.918\nsamples = 3\nvalue = [2, 1, 0, 0]"] ;
14 -> 15 ;
16 [label="entropy = 0.0\nsamples = 1\nvalue = [0, 1, 0, 0]"] ;
15 -> 16 ;
17 [label="entropy = 0.0\nsamples = 2\nvalue = [2, 0, 0, 0]"] ;
15 -> 17 ;
18 [label="entropy = 0.0\nsamples = 70\nvalue = [70, 0, 0, 0]"] ;
14 -> 18 ;
19 [label="X[12] <= 1833.5\nentropy = 0.98\nsamples = 12\nvalue = [7, 5, 0, 0]"] ;
13 -> 19 ;
20 [label="X[11] <= 1346.5\nentropy = 0.544\nsamples = 8\nvalue = [7, 1, 0, 0]"] ;
19 -> 20 ;
21 [label="entropy = 0.0\nsamples = 7\nvalue = [7, 0, 0, 0]"] ;
20 -> 21 ;
22 [label="entropy = 0.0\nsamples = 1\nvalue = [0, 1, 0, 0]"] ;
20 -> 22 ;
23 [label="entropy = 0.0\nsamples = 4\nvalue = [0, 4, 0, 0]"] ;
19 -> 23 ;
24 [label="X[13] <= 844.0\nentropy = 0.992\nsamples = 56\nvalue = [31, 25, 0, 0]"] ;
12 -> 24 ;
25 [label="X[12] <= 1642.0\nentropy = 0.849\nsamples = 40\nvalue = [29, 11, 0, 0]"] ;
24 -> 25 ;
26 [label="X[12] <= 1337.5\nentropy = 0.286\nsamples = 20\nvalue = [19, 1, 0, 0]"] ;
25 -> 26 ;
27 [label="entropy = 0.0\nsamples = 1\nvalue = [0, 1, 0, 0]"] ;
26 -> 27 ;
28 [label="entropy = 0.0\nsamples = 19\nvalue = [19, 0, 0, 0]"] ;
26 -> 28 ;
29 [label="X[11] <= 521.0\nentropy = 1.0\nsamples = 20\nvalue = [10, 10, 0, 0]"] ;
25 -> 29 ;
30 [label="entropy = 0.0\nsamples = 7\nvalue = [7, 0, 0, 0]"] ;
29 -> 30 ;
31 [label="X[2] <= 2.45\nentropy = 0.779\nsamples = 13\nvalue = [3, 10, 0, 0]"] ;
29 -> 31 ;
32 [label="entropy = 0.0\nsamples = 9\nvalue = [0, 9, 0, 0]"] ;
31 -> 32 ;
33 [label="X[12] <= 1957.0\nentropy = 0.811\nsamples = 4\nvalue = [3, 1, 0, 0]"] ;
31 -> 33 ;
34 [label="entropy = 0.0\nsamples = 3\nvalue = [3, 0, 0, 0]"] ;
33 -> 34 ;
35 [label="entropy = 0.0\nsamples = 1\nvalue = [0, 1, 0, 0]"] ;
33 -> 35 ;
36 [label="X[11] <= 277.0\nentropy = 0.544\nsamples = 16\nvalue = [2, 14, 0, 0]"] ;
24 -> 36 ;
37 [label="entropy = 0.0\nsamples = 2\nvalue = [2, 0, 0, 0]"] ;
36 -> 37 ;
38 [label="entropy = 0.0\nsamples = 14\nvalue = [0, 14, 0, 0]"] ;
36 -> 38 ;
39 [label="X[0] <= 1108.5\nentropy = 1.248\nsamples = 422\nvalue = [66, 282, 74, 0]"] ;
1 -> 39 ;
40 [label="X[13] <= 1506.0\nentropy = 1.135\nsamples = 175\nvalue = [58, 110, 7, 0]"] ;
39 -> 40 ;
41 [label="X[11] <= 1132.5\nentropy = 0.747\nsamples = 61\nvalue = [48, 13, 0, 0]"] ;
40 -> 41 ;
42 [label="X[12] <= 1762.0\nentropy = 0.503\nsamples = 54\nvalue = [48, 6, 0, 0]"] ;
41 -> 42 ;
43 [label="X[11] <= 976.0\nentropy = 0.246\nsamples = 49\nvalue = [47, 2, 0, 0]"] ;
42 -> 43 ;
44 [label="entropy = 0.0\nsamples = 43\nvalue = [43, 0, 0, 0]"] ;
43 -> 44 ;
45 [label="X[0] <= 952.5\nentropy = 0.918\nsamples = 6\nvalue = [4, 2, 0, 0]"] ;
43 -> 45 ;
46 [label="entropy = 0.0\nsamples = 4\nvalue = [4, 0, 0, 0]"] ;
45 -> 46 ;
47 [label="entropy = 0.0\nsamples = 2\nvalue = [0, 2, 0, 0]"] ;
45 -> 47 ;
48 [label="X[6] <= 50.0\nentropy = 0.722\nsamples = 5\nvalue = [1, 4, 0, 0]"] ;
42 -> 48 ;
49 [label="entropy = 0.0\nsamples = 4\nvalue = [0, 4, 0, 0]"] ;
48 -> 49 ;
50 [label="entropy = 0.0\nsamples = 1\nvalue = [1, 0, 0, 0]"] ;
48 -> 50 ;
51 [label="entropy = 0.0\nsamples = 7\nvalue = [0, 7, 0, 0]"] ;
41 -> 51 ;
52 [label="X[12] <= 822.0\nentropy = 0.753\nsamples = 114\nvalue = [10, 97, 7, 0]"] ;
40 -> 52 ;
53 [label="X[13] <= 1998.0\nentropy = 0.985\nsamples = 21\nvalue = [9, 12, 0, 0]"] ;
52 -> 53 ;
54 [label="X[0] <= 836.5\nentropy = 0.94\nsamples = 14\nvalue = [9, 5, 0, 0]"] ;
53 -> 54 ;
55 [label="entropy = 0.0\nsamples = 9\nvalue = [9, 0, 0, 0]"] ;
54 -> 55 ;
56 [label="entropy = 0.0\nsamples = 5\nvalue = [0, 5, 0, 0]"] ;
54 -> 56 ;
57 [label="entropy = 0.0\nsamples = 7\nvalue = [0, 7, 0, 0]"] ;
53 -> 57 ;
58 [label="X[13] <= 2068.0\nentropy = 0.47\nsamples = 93\nvalue = [1, 85, 7, 0]"] ;
52 -> 58 ;
59 [label="X[16] <= 2.5\nentropy = 0.111\nsamples = 68\nvalue = [1, 67, 0, 0]"] ;
58 -> 59 ;
60 [label="X[11] <= 547.0\nentropy = 1.0\nsamples = 2\nvalue = [1, 1, 0, 0]"] ;
59 -> 60 ;
61 [label="entropy = 0.0\nsamples = 1\nvalue = [1, 0, 0, 0]"] ;
60 -> 61 ;
62 [label="entropy = 0.0\nsamples = 1\nvalue = [0, 1, 0, 0]"] ;
60 -> 62 ;
63 [label="entropy = 0.0\nsamples = 66\nvalue = [0, 66, 0, 0]"] ;
59 -> 63 ;
64 [label="X[11] <= 599.0\nentropy = 0.855\nsamples = 25\nvalue = [0, 18, 7, 0]"] ;
58 -> 64 ;
65 [label="entropy = 0.0\nsamples = 17\nvalue = [0, 17, 0, 0]"] ;
64 -> 65 ;
66 [label="X[15] <= 3.5\nentropy = 0.544\nsamples = 8\nvalue = [0, 1, 7, 0]"] ;
64 -> 66 ;
67 [label="entropy = 0.0\nsamples = 1\nvalue = [0, 1, 0, 0]"] ;
66 -> 67 ;
68 [label="entropy = 0.0\nsamples = 7\nvalue = [0, 0, 7, 0]"] ;
66 -> 68 ;
69 [label="X[12] <= 1127.0\nentropy = 1.034\nsamples = 247\nvalue = [8, 172, 67, 0]"] ;
39 -> 69 ;
70 [label="X[13] <= 1673.5\nentropy = 0.644\nsamples = 99\nvalue = [8, 87, 4, 0]"] ;
69 -> 70 ;
71 [label="X[0] <= 1366.5\nentropy = 0.619\nsamples = 52\nvalue = [8, 44, 0, 0]"] ;
70 -> 71 ;
72 [label="X[20] <= 105055.0\nentropy = 0.989\nsamples = 16\nvalue = [7, 9, 0, 0]"] ;
71 -> 72 ;
73 [label="X[13] <= 1300.5\nentropy = 0.684\nsamples = 11\nvalue = [2, 9, 0, 0]"] ;
72 -> 73 ;
74 [label="X[9] <= 5.5\nentropy = 0.918\nsamples = 3\nvalue = [2, 1, 0, 0]"] ;
73 -> 74 ;
75 [label="entropy = 0.0\nsamples = 2\nvalue = [2, 0, 0, 0]"] ;
74 -> 75 ;
76 [label="entropy = 0.0\nsamples = 1\nvalue = [0, 1, 0, 0]"] ;
74 -> 76 ;
77 [label="entropy = 0.0\nsamples = 8\nvalue = [0, 8, 0, 0]"] ;
73 -> 77 ;
78 [label="entropy = 0.0\nsamples = 5\nvalue = [5, 0, 0, 0]"] ;
72 -> 78 ;
79 [label="X[20] <= 111106.0\nentropy = 0.183\nsamples = 36\nvalue = [1, 35, 0, 0]"] ;
71 -> 79 ;
80 [label="entropy = 0.0\nsamples = 35\nvalue = [0, 35, 0, 0]"] ;
79 -> 80 ;
81 [label="entropy = 0.0\nsamples = 1\nvalue = [1, 0, 0, 0]"] ;
79 -> 81 ;
82 [label="X[13] <= 2181.0\nentropy = 0.42\nsamples = 47\nvalue = [0, 43, 4, 0]"] ;
70 -> 82 ;
83 [label="X[20] <= 110105.5\nentropy = 0.172\nsamples = 39\nvalue = [0, 38, 1, 0]"] ;
82 -> 83 ;
84 [label="entropy = 0.0\nsamples = 33\nvalue = [0, 33, 0, 0]"] ;
83 -> 84 ;
85 [label="X[8] <= 126.0\nentropy = 0.65\nsamples = 6\nvalue = [0, 5, 1, 0]"] ;
83 -> 85 ;
86 [label="X[10] <= 17.0\nentropy = 1.0\nsamples = 2\nvalue = [0, 1, 1, 0]"] ;
85 -> 86 ;
87 [label="entropy = 0.0\nsamples = 1\nvalue = [0, 0, 1, 0]"] ;
86 -> 87 ;
88 [label="entropy = 0.0\nsamples = 1\nvalue = [0, 1, 0, 0]"] ;
86 -> 88 ;
89 [label="entropy = 0.0\nsamples = 4\nvalue = [0, 4, 0, 0]"] ;
85 -> 89 ;
90 [label="X[12] <= 737.0\nentropy = 0.954\nsamples = 8\nvalue = [0, 5, 3, 0]"] ;
82 -> 90 ;
91 [label="entropy = 0.0\nsamples = 5\nvalue = [0, 5, 0, 0]"] ;
90 -> 91 ;
92 [label="entropy = 0.0\nsamples = 3\nvalue = [0, 0, 3, 0]"] ;
90 -> 92 ;
93 [label="X[13] <= 1631.0\nentropy = 0.984\nsamples = 148\nvalue = [0, 85, 63, 0]"] ;
69 -> 93 ;
94 [label="X[11] <= 1549.0\nentropy = 0.573\nsamples = 81\nvalue = [0, 70, 11, 0]"] ;
93 -> 94 ;
95 [label="X[11] <= 962.5\nentropy = 0.319\nsamples = 69\nvalue = [0, 65, 4, 0]"] ;
94 -> 95 ;
96 [label="entropy = 0.0\nsamples = 41\nvalue = [0, 41, 0, 0]"] ;
95 -> 96 ;
97 [label="X[7] <= 0.25\nentropy = 0.592\nsamples = 28\nvalue = [0, 24, 4, 0]"] ;
95 -> 97 ;
98 [label="X[8] <= 119.5\nentropy = 0.971\nsamples = 5\nvalue = [0, 2, 3, 0]"] ;
97 -> 98 ;
99 [label="entropy = 0.0\nsamples = 2\nvalue = [0, 2, 0, 0]"] ;
98 -> 99 ;
100 [label="entropy = 0.0\nsamples = 3\nvalue = [0, 0, 3, 0]"] ;
98 -> 100 ;
101 [label="X[13] <= 1576.0\nentropy = 0.258\nsamples = 23\nvalue = [0, 22, 1, 0]"] ;
97 -> 101 ;
102 [label="entropy = 0.0\nsamples = 22\nvalue = [0, 22, 0, 0]"] ;
101 -> 102 ;
103 [label="entropy = 0.0\nsamples = 1\nvalue = [0, 0, 1, 0]"] ;
101 -> 103 ;
104 [label="X[8] <= 150.5\nentropy = 0.98\nsamples = 12\nvalue = [0, 5, 7, 0]"] ;
94 -> 104 ;
105 [label="entropy = 0.0\nsamples = 6\nvalue = [0, 0, 6, 0]"] ;
104 -> 105 ;
106 [label="X[13] <= 1465.5\nentropy = 0.65\nsamples = 6\nvalue = [0, 5, 1, 0]"] ;
104 -> 106 ;
107 [label="entropy = 0.0\nsamples = 5\nvalue = [0, 5, 0, 0]"] ;
106 -> 107 ;
108 [label="entropy = 0.0\nsamples = 1\nvalue = [0, 0, 1, 0]"] ;
106 -> 108 ;
109 [label="X[0] <= 1622.0\nentropy = 0.767\nsamples = 67\nvalue = [0, 15, 52, 0]"] ;
93 -> 109 ;
110 [label="X[13] <= 1954.0\nentropy = 0.954\nsamples = 40\nvalue = [0, 15, 25, 0]"] ;
109 -> 110 ;
111 [label="X[11] <= 1269.5\nentropy = 0.831\nsamples = 19\nvalue = [0, 14, 5, 0]"] ;
110 -> 111 ;
112 [label="X[15] <= 10.5\nentropy = 0.353\nsamples = 15\nvalue = [0, 14, 1, 0]"] ;
111 -> 112 ;
113 [label="entropy = 0.0\nsamples = 13\nvalue = [0, 13, 0, 0]"] ;
112 -> 113 ;
114 [label="X[3] <= 0.5\nentropy = 1.0\nsamples = 2\nvalue = [0, 1, 1, 0]"] ;
112 -> 114 ;
115 [label="entropy = 0.0\nsamples = 1\nvalue = [0, 0, 1, 0]"] ;
114 -> 115 ;
116 [label="entropy = 0.0\nsamples = 1\nvalue = [0, 1, 0, 0]"] ;
114 -> 116 ;
117 [label="entropy = 0.0\nsamples = 4\nvalue = [0, 0, 4, 0]"] ;
111 -> 117 ;
118 [label="X[13] <= 2223.0\nentropy = 0.276\nsamples = 21\nvalue = [0, 1, 20, 0]"] ;
110 -> 118 ;
119 [label="entropy = 0.0\nsamples = 20\nvalue = [0, 0, 20, 0]"] ;
118 -> 119 ;
120 [label="entropy = 0.0\nsamples = 1\nvalue = [0, 1, 0, 0]"] ;
118 -> 120 ;
121 [label="entropy = 0.0\nsamples = 27\nvalue = [0, 0, 27, 0]"] ;
109 -> 121 ;
122 [label="X[13] <= 3017.0\nentropy = 1.249\nsamples = 669\nvalue = [0, 38, 279, 352]"] ;
0 -> 122 [labeldistance=2.5, labelangle=-45, headlabel="False"] ;
123 [label="X[0] <= 1364.5\nentropy = 1.172\nsamples = 308\nvalue = [0, 38, 216, 54]"] ;
122 -> 123 ;
124 [label="X[13] <= 2600.5\nentropy = 0.962\nsamples = 186\nvalue = [0, 37, 141, 8]"] ;
123 -> 124 ;
125 [label="X[11] <= 550.0\nentropy = 1.051\nsamples = 88\nvalue = [0, 35, 52, 1]"] ;
124 -> 125 ;
126 [label="X[0] <= 1174.0\nentropy = 0.911\nsamples = 49\nvalue = [0, 33, 16, 0]"] ;
125 -> 126 ;
127 [label="X[12] <= 1246.0\nentropy = 0.533\nsamples = 33\nvalue = [0, 29, 4, 0]"] ;
126 -> 127 ;
128 [label="entropy = 0.0\nsamples = 22\nvalue = [0, 22, 0, 0]"] ;
127 -> 128 ;
129 [label="X[11] <= 369.0\nentropy = 0.946\nsamples = 11\nvalue = [0, 7, 4, 0]"] ;
127 -> 129 ;
130 [label="entropy = 0.0\nsamples = 7\nvalue = [0, 7, 0, 0]"] ;
129 -> 130 ;
131 [label="entropy = 0.0\nsamples = 4\nvalue = [0, 0, 4, 0]"] ;
129 -> 131 ;
132 [label="X[12] <= 659.0\nentropy = 0.811\nsamples = 16\nvalue = [0, 4, 12, 0]"] ;
126 -> 132 ;
133 [label="entropy = 0.0\nsamples = 4\nvalue = [0, 4, 0, 0]"] ;
132 -> 133 ;
134 [label="entropy = 0.0\nsamples = 12\nvalue = [0, 0, 12, 0]"] ;
132 -> 134 ;
135 [label="X[11] <= 1876.5\nentropy = 0.462\nsamples = 39\nvalue = [0, 2, 36, 1]"] ;
125 -> 135 ;
136 [label="X[12] <= 1215.5\nentropy = 0.297\nsamples = 38\nvalue = [0, 2, 36, 0]"] ;
135 -> 136 ;
137 [label="X[0] <= 815.0\nentropy = 0.918\nsamples = 6\nvalue = [0, 2, 4, 0]"] ;
136 -> 137 ;
138 [label="entropy = 0.0\nsamples = 2\nvalue = [0, 2, 0, 0]"] ;
137 -> 138 ;
139 [label="entropy = 0.0\nsamples = 4\nvalue = [0, 0, 4, 0]"] ;
137 -> 139 ;
140 [label="entropy = 0.0\nsamples = 32\nvalue = [0, 0, 32, 0]"] ;
136 -> 140 ;
141 [label="entropy = 0.0\nsamples = 1\nvalue = [0, 0, 0, 1]"] ;
135 -> 141 ;
142 [label="X[11] <= 983.5\nentropy = 0.513\nsamples = 98\nvalue = [0, 2, 89, 7]"] ;
124 -> 142 ;
143 [label="X[12] <= 612.5\nentropy = 0.279\nsamples = 75\nvalue = [0, 2, 72, 1]"] ;
142 -> 143 ;
144 [label="X[14] <= 12.5\nentropy = 0.971\nsamples = 5\nvalue = [0, 2, 3, 0]"] ;
143 -> 144 ;
145 [label="entropy = 0.0\nsamples = 3\nvalue = [0, 0, 3, 0]"] ;
144 -> 145 ;
146 [label="entropy = 0.0\nsamples = 2\nvalue = [0, 2, 0, 0]"] ;
144 -> 146 ;
147 [label="X[8] <= 86.0\nentropy = 0.108\nsamples = 70\nvalue = [0, 0, 69, 1]"] ;
143 -> 147 ;
148 [label="X[7] <= 0.45\nentropy = 0.918\nsamples = 3\nvalue = [0, 0, 2, 1]"] ;
147 -> 148 ;
149 [label="entropy = 0.0\nsamples = 1\nvalue = [0, 0, 0, 1]"] ;
148 -> 149 ;
150 [label="entropy = 0.0\nsamples = 2\nvalue = [0, 0, 2, 0]"] ;
148 -> 150 ;
151 [label="entropy = 0.0\nsamples = 67\nvalue = [0, 0, 67, 0]"] ;
147 -> 151 ;
152 [label="X[13] <= 2740.5\nentropy = 0.828\nsamples = 23\nvalue = [0, 0, 17, 6]"] ;
142 -> 152 ;
153 [label="entropy = 0.0\nsamples = 9\nvalue = [0, 0, 9, 0]"] ;
152 -> 153 ;
154 [label="X[0] <= 988.5\nentropy = 0.985\nsamples = 14\nvalue = [0, 0, 8, 6]"] ;
152 -> 154 ;
155 [label="X[8] <= 101.5\nentropy = 0.845\nsamples = 11\nvalue = [0, 0, 8, 3]"] ;
154 -> 155 ;
156 [label="entropy = 0.0\nsamples = 2\nvalue = [0, 0, 0, 2]"] ;
155 -> 156 ;
157 [label="X[8] <= 198.0\nentropy = 0.503\nsamples = 9\nvalue = [0, 0, 8, 1]"] ;
155 -> 157 ;
158 [label="entropy = 0.0\nsamples = 8\nvalue = [0, 0, 8, 0]"] ;
157 -> 158 ;
159 [label="entropy = 0.0\nsamples = 1\nvalue = [0, 0, 0, 1]"] ;
157 -> 159 ;
160 [label="entropy = 0.0\nsamples = 3\nvalue = [0, 0, 0, 3]"] ;
154 -> 160 ;
161 [label="X[12] <= 1198.5\nentropy = 1.019\nsamples = 122\nvalue = [0, 1, 75, 46]"] ;
123 -> 161 ;
162 [label="X[13] <= 2864.0\nentropy = 0.522\nsamples = 62\nvalue = [0, 1, 56, 5]"] ;
161 -> 162 ;
163 [label="X[20] <= 111105.5\nentropy = 0.27\nsamples = 53\nvalue = [0, 1, 51, 1]"] ;
162 -> 163 ;
164 [label="X[11] <= 808.0\nentropy = 0.137\nsamples = 52\nvalue = [0, 0, 51, 1]"] ;
163 -> 164 ;
165 [label="entropy = 0.0\nsamples = 48\nvalue = [0, 0, 48, 0]"] ;
164 -> 165 ;
166 [label="X[5] <= 0.5\nentropy = 0.811\nsamples = 4\nvalue = [0, 0, 3, 1]"] ;
164 -> 166 ;
167 [label="entropy = 0.0\nsamples = 1\nvalue = [0, 0, 0, 1]"] ;
166 -> 167 ;
168 [label="entropy = 0.0\nsamples = 3\nvalue = [0, 0, 3, 0]"] ;
166 -> 168 ;
169 [label="entropy = 0.0\nsamples = 1\nvalue = [0, 1, 0, 0]"] ;
163 -> 169 ;
170 [label="X[12] <= 665.0\nentropy = 0.991\nsamples = 9\nvalue = [0, 0, 5, 4]"] ;
162 -> 170 ;
171 [label="entropy = 0.0\nsamples = 4\nvalue = [0, 0, 4, 0]"] ;
170 -> 171 ;
172 [label="X[13] <= 2978.5\nentropy = 0.722\nsamples = 5\nvalue = [0, 0, 1, 4]"] ;
170 -> 172 ;
173 [label="entropy = 0.0\nsamples = 4\nvalue = [0, 0, 0, 4]"] ;
172 -> 173 ;
174 [label="entropy = 0.0\nsamples = 1\nvalue = [0, 0, 1, 0]"] ;
172 -> 174 ;
175 [label="X[8] <= 190.5\nentropy = 0.901\nsamples = 60\nvalue = [0, 0, 19, 41]"] ;
161 -> 175 ;
176 [label="X[13] <= 2494.5\nentropy = 0.772\nsamples = 53\nvalue = [0, 0, 12, 41]"] ;
175 -> 176 ;
177 [label="X[11] <= 1314.5\nentropy = 0.998\nsamples = 17\nvalue = [0, 0, 9, 8]"] ;
176 -> 177 ;
178 [label="X[12] <= 1886.0\nentropy = 0.811\nsamples = 12\nvalue = [0, 0, 9, 3]"] ;
177 -> 178 ;
179 [label="X[4] <= 6.0\nentropy = 0.469\nsamples = 10\nvalue = [0, 0, 9, 1]"] ;
178 -> 179 ;
180 [label="entropy = 0.0\nsamples = 9\nvalue = [0, 0, 9, 0]"] ;
179 -> 180 ;
181 [label="entropy = 0.0\nsamples = 1\nvalue = [0, 0, 0, 1]"] ;
179 -> 181 ;
182 [label="entropy = 0.0\nsamples = 2\nvalue = [0, 0, 0, 2]"] ;
178 -> 182 ;
183 [label="entropy = 0.0\nsamples = 5\nvalue = [0, 0, 0, 5]"] ;
177 -> 183 ;
184 [label="X[0] <= 1646.5\nentropy = 0.414\nsamples = 36\nvalue = [0, 0, 3, 33]"] ;
176 -> 184 ;
185 [label="X[11] <= 743.5\nentropy = 0.881\nsamples = 10\nvalue = [0, 0, 3, 7]"] ;
184 -> 185 ;
186 [label="entropy = 0.0\nsamples = 3\nvalue = [0, 0, 3, 0]"] ;
185 -> 186 ;
187 [label="entropy = 0.0\nsamples = 7\nvalue = [0, 0, 0, 7]"] ;
185 -> 187 ;
188 [label="entropy = 0.0\nsamples = 26\nvalue = [0, 0, 0, 26]"] ;
184 -> 188 ;
189 [label="entropy = 0.0\nsamples = 7\nvalue = [0, 0, 7, 0]"] ;
175 -> 189 ;
190 [label="X[0] <= 1148.5\nentropy = 0.668\nsamples = 361\nvalue = [0, 0, 63, 298]"] ;
122 -> 190 ;
191 [label="X[12] <= 853.0\nentropy = 0.942\nsamples = 156\nvalue = [0, 0, 56, 100]"] ;
190 -> 191 ;
192 [label="X[13] <= 3541.0\nentropy = 0.75\nsamples = 42\nvalue = [0, 0, 33, 9]"] ;
191 -> 192 ;
193 [label="entropy = 0.0\nsamples = 24\nvalue = [0, 0, 24, 0]"] ;
192 -> 193 ;
194 [label="X[0] <= 741.0\nentropy = 1.0\nsamples = 18\nvalue = [0, 0, 9, 9]"] ;
192 -> 194 ;
195 [label="X[11] <= 191.0\nentropy = 0.89\nsamples = 13\nvalue = [0, 0, 9, 4]"] ;
194 -> 195 ;
196 [label="entropy = 0.0\nsamples = 6\nvalue = [0, 0, 6, 0]"] ;
195 -> 196 ;
197 [label="X[4] <= 8.0\nentropy = 0.985\nsamples = 7\nvalue = [0, 0, 3, 4]"] ;
195 -> 197 ;
198 [label="entropy = 0.0\nsamples = 4\nvalue = [0, 0, 0, 4]"] ;
197 -> 198 ;
199 [label="entropy = 0.0\nsamples = 3\nvalue = [0, 0, 3, 0]"] ;
197 -> 199 ;
200 [label="entropy = 0.0\nsamples = 5\nvalue = [0, 0, 0, 5]"] ;
194 -> 200 ;
201 [label="X[13] <= 3569.5\nentropy = 0.725\nsamples = 114\nvalue = [0, 0, 23, 91]"] ;
191 -> 201 ;
202 [label="X[11] <= 537.5\nentropy = 0.918\nsamples = 69\nvalue = [0, 0, 23, 46]"] ;
201 -> 202 ;
203 [label="X[20] <= 5560.5\nentropy = 0.958\nsamples = 29\nvalue = [0, 0, 18, 11]"] ;
202 -> 203 ;
204 [label="entropy = 0.0\nsamples = 6\nvalue = [0, 0, 0, 6]"] ;
203 -> 204 ;
205 [label="X[12] <= 1688.0\nentropy = 0.755\nsamples = 23\nvalue = [0, 0, 18, 5]"] ;
203 -> 205 ;
206 [label="X[8] <= 88.5\nentropy = 0.31\nsamples = 18\nvalue = [0, 0, 17, 1]"] ;
205 -> 206 ;
207 [label="entropy = 0.0\nsamples = 1\nvalue = [0, 0, 0, 1]"] ;
206 -> 207 ;
208 [label="entropy = 0.0\nsamples = 17\nvalue = [0, 0, 17, 0]"] ;
206 -> 208 ;
209 [label="X[20] <= 10600.5\nentropy = 0.722\nsamples = 5\nvalue = [0, 0, 1, 4]"] ;
205 -> 209 ;
210 [label="entropy = 0.0\nsamples = 1\nvalue = [0, 0, 1, 0]"] ;
209 -> 210 ;
211 [label="entropy = 0.0\nsamples = 4\nvalue = [0, 0, 0, 4]"] ;
209 -> 211 ;
212 [label="X[16] <= 7.5\nentropy = 0.544\nsamples = 40\nvalue = [0, 0, 5, 35]"] ;
202 -> 212 ;
213 [label="X[13] <= 3193.5\nentropy = 0.874\nsamples = 17\nvalue = [0, 0, 5, 12]"] ;
212 -> 213 ;
214 [label="X[11] <= 1327.0\nentropy = 0.722\nsamples = 5\nvalue = [0, 0, 4, 1]"] ;
213 -> 214 ;
215 [label="entropy = 0.0\nsamples = 4\nvalue = [0, 0, 4, 0]"] ;
214 -> 215 ;
216 [label="entropy = 0.0\nsamples = 1\nvalue = [0, 0, 0, 1]"] ;
214 -> 216 ;
217 [label="X[20] <= 10600.5\nentropy = 0.414\nsamples = 12\nvalue = [0, 0, 1, 11]"] ;
213 -> 217 ;
218 [label="X[0] <= 834.5\nentropy = 1.0\nsamples = 2\nvalue = [0, 0, 1, 1]"] ;
217 -> 218 ;
219 [label="entropy = 0.0\nsamples = 1\nvalue = [0, 0, 1, 0]"] ;
218 -> 219 ;
220 [label="entropy = 0.0\nsamples = 1\nvalue = [0, 0, 0, 1]"] ;
218 -> 220 ;
221 [label="entropy = 0.0\nsamples = 10\nvalue = [0, 0, 0, 10]"] ;
217 -> 221 ;
222 [label="entropy = 0.0\nsamples = 23\nvalue = [0, 0, 0, 23]"] ;
212 -> 222 ;
223 [label="entropy = 0.0\nsamples = 45\nvalue = [0, 0, 0, 45]"] ;
201 -> 223 ;
224 [label="X[13] <= 3314.5\nentropy = 0.215\nsamples = 205\nvalue = [0, 0, 7, 198]"] ;
190 -> 224 ;
225 [label="X[11] <= 508.5\nentropy = 0.57\nsamples = 52\nvalue = [0, 0, 7, 45]"] ;
224 -> 225 ;
226 [label="X[8] <= 162.5\nentropy = 0.918\nsamples = 21\nvalue = [0, 0, 7, 14]"] ;
225 -> 226 ;
227 [label="X[0] <= 1203.0\nentropy = 0.391\nsamples = 13\nvalue = [0, 0, 1, 12]"] ;
226 -> 227 ;
228 [label="entropy = 0.0\nsamples = 1\nvalue = [0, 0, 1, 0]"] ;
227 -> 228 ;
229 [label="entropy = 0.0\nsamples = 12\nvalue = [0, 0, 0, 12]"] ;
227 -> 229 ;
230 [label="X[4] <= 1.5\nentropy = 0.811\nsamples = 8\nvalue = [0, 0, 6, 2]"] ;
226 -> 230 ;
231 [label="entropy = 0.0\nsamples = 2\nvalue = [0, 0, 0, 2]"] ;
230 -> 231 ;
232 [label="entropy = 0.0\nsamples = 6\nvalue = [0, 0, 6, 0]"] ;
230 -> 232 ;
233 [label="entropy = 0.0\nsamples = 31\nvalue = [0, 0, 0, 31]"] ;
225 -> 233 ;
234 [label="entropy = 0.0\nsamples = 153\nvalue = [0, 0, 0, 153]"] ;
224 -> 234 ;
}
