digraph Tree {
node [shape=box] ;
0 [label="X[8] <= 2247.0\nentropy = 2.0\nsamples = 1400\nvalue = [341, 354, 353, 352]"] ;
1 [label="X[8] <= 1106.0\nentropy = 1.371\nsamples = 731\nvalue = [341, 316, 74, 0]"] ;
0 -> 1 [labeldistance=2.5, labelangle=45, headlabel="True"] ;
2 [label="X[7] <= 1332.5\nentropy = 0.5\nsamples = 309\nvalue = [275, 34, 0, 0]"] ;
1 -> 2 ;
3 [label="X[8] <= 936.5\nentropy = 0.129\nsamples = 168\nvalue = [165, 3, 0, 0]"] ;
2 -> 3 ;
4 [label="entropy = 0.0\nsamples = 133\nvalue = [133, 0, 0, 0]"] ;
3 -> 4 ;
5 [label="X[0] <= 1787.5\nentropy = 0.422\nsamples = 35\nvalue = [32, 3, 0, 0]"] ;
3 -> 5 ;
6 [label="X[6] <= 889.5\nentropy = 0.196\nsamples = 33\nvalue = [32, 1, 0, 0]"] ;
5 -> 6 ;
7 [label="entropy = 0.0\nsamples = 29\nvalue = [29, 0, 0, 0]"] ;
6 -> 7 ;
8 [label="X[4] <= 3.0\nentropy = 0.811\nsamples = 4\nvalue = [3, 1, 0, 0]"] ;
6 -> 8 ;
9 [label="entropy = 0.0\nsamples = 3\nvalue = [3, 0, 0, 0]"] ;
8 -> 9 ;
10 [label="entropy = 0.0\nsamples = 1\nvalue = [0, 1, 0, 0]"] ;
8 -> 10 ;
11 [label="entropy = 0.0\nsamples = 2\nvalue = [0, 2, 0, 0]"] ;
5 -> 11 ;
12 [label="X[0] <= 1420.5\nentropy = 0.76\nsamples = 141\nvalue = [110, 31, 0, 0]"] ;
2 -> 12 ;
13 [label="X[8] <= 954.0\nentropy = 0.368\nsamples = 85\nvalue = [79, 6, 0, 0]"] ;
12 -> 13 ;
14 [label="X[9] <= 2.5\nentropy = 0.104\nsamples = 73\nvalue = [72, 1, 0, 0]"] ;
13 -> 14 ;
15 [label="X[3] <= 41.5\nentropy = 0.918\nsamples = 3\nvalue = [2, 1, 0, 0]"] ;
14 -> 15 ;
16 [label="entropy = 0.0\nsamples = 2\nvalue = [2, 0, 0, 0]"] ;
15 -> 16 ;
17 [label="entropy = 0.0\nsamples = 1\nvalue = [0, 1, 0, 0]"] ;
15 -> 17 ;
18 [label="entropy = 0.0\nsamples = 70\nvalue = [70, 0, 0, 0]"] ;
14 -> 18 ;
19 [label="X[7] <= 1833.5\nentropy = 0.98\nsamples = 12\nvalue = [7, 5, 0, 0]"] ;
13 -> 19 ;
20 [label="X[6] <= 1346.5\nentropy = 0.544\nsamples = 8\nvalue = [7, 1, 0, 0]"] ;
19 -> 20 ;
21 [label="entropy = 0.0\nsamples = 7\nvalue = [7, 0, 0, 0]"] ;
20 -> 21 ;
22 [label="entropy = 0.0\nsamples = 1\nvalue = [0, 1, 0, 0]"] ;
20 -> 22 ;
23 [label="entropy = 0.0\nsamples = 4\nvalue = [0, 4, 0, 0]"] ;
19 -> 23 ;
24 [label="X[8] <= 844.0\nentropy = 0.992\nsamples = 56\nvalue = [31, 25, 0, 0]"] ;
12 -> 24 ;
25 [label="X[7] <= 1642.0\nentropy = 0.849\nsamples = 40\nvalue = [29, 11, 0, 0]"] ;
24 -> 25 ;
26 [label="X[7] <= 1337.5\nentropy = 0.286\nsamples = 20\nvalue = [19, 1, 0, 0]"] ;
25 -> 26 ;
27 [label="entropy = 0.0\nsamples = 1\nvalue = [0, 1, 0, 0]"] ;
26 -> 27 ;
28 [label="entropy = 0.0\nsamples = 19\nvalue = [19, 0, 0, 0]"] ;
26 -> 28 ;
29 [label="X[6] <= 521.0\nentropy = 1.0\nsamples = 20\nvalue = [10, 10, 0, 0]"] ;
25 -> 29 ;
30 [label="entropy = 0.0\nsamples = 7\nvalue = [7, 0, 0, 0]"] ;
29 -> 30 ;
31 [label="X[1] <= 2.45\nentropy = 0.779\nsamples = 13\nvalue = [3, 10, 0, 0]"] ;
29 -> 31 ;
32 [label="entropy = 0.0\nsamples = 9\nvalue = [0, 9, 0, 0]"] ;
31 -> 32 ;
33 [label="X[7] <= 1957.0\nentropy = 0.811\nsamples = 4\nvalue = [3, 1, 0, 0]"] ;
31 -> 33 ;
34 [label="entropy = 0.0\nsamples = 3\nvalue = [3, 0, 0, 0]"] ;
33 -> 34 ;
35 [label="entropy = 0.0\nsamples = 1\nvalue = [0, 1, 0, 0]"] ;
33 -> 35 ;
36 [label="X[6] <= 277.0\nentropy = 0.544\nsamples = 16\nvalue = [2, 14, 0, 0]"] ;
24 -> 36 ;
37 [label="entropy = 0.0\nsamples = 2\nvalue = [2, 0, 0, 0]"] ;
36 -> 37 ;
38 [label="entropy = 0.0\nsamples = 14\nvalue = [0, 14, 0, 0]"] ;
36 -> 38 ;
39 [label="X[0] <= 1108.5\nentropy = 1.248\nsamples = 422\nvalue = [66, 282, 74, 0]"] ;
1 -> 39 ;
40 [label="X[8] <= 1506.0\nentropy = 1.135\nsamples = 175\nvalue = [58, 110, 7, 0]"] ;
39 -> 40 ;
41 [label="X[6] <= 1132.5\nentropy = 0.747\nsamples = 61\nvalue = [48, 13, 0, 0]"] ;
40 -> 41 ;
42 [label="X[7] <= 1762.0\nentropy = 0.503\nsamples = 54\nvalue = [48, 6, 0, 0]"] ;
41 -> 42 ;
43 [label="X[6] <= 976.0\nentropy = 0.246\nsamples = 49\nvalue = [47, 2, 0, 0]"] ;
42 -> 43 ;
44 [label="entropy = 0.0\nsamples = 43\nvalue = [43, 0, 0, 0]"] ;
43 -> 44 ;
45 [label="X[8] <= 1347.0\nentropy = 0.918\nsamples = 6\nvalue = [4, 2, 0, 0]"] ;
43 -> 45 ;
46 [label="entropy = 0.0\nsamples = 4\nvalue = [4, 0, 0, 0]"] ;
45 -> 46 ;
47 [label="entropy = 0.0\nsamples = 2\nvalue = [0, 2, 0, 0]"] ;
45 -> 47 ;
48 [label="X[5] <= 11.5\nentropy = 0.722\nsamples = 5\nvalue = [1, 4, 0, 0]"] ;
42 -> 48 ;
49 [label="entropy = 0.0\nsamples = 1\nvalue = [1, 0, 0, 0]"] ;
48 -> 49 ;
50 [label="entropy = 0.0\nsamples = 4\nvalue = [0, 4, 0, 0]"] ;
48 -> 50 ;
51 [label="entropy = 0.0\nsamples = 7\nvalue = [0, 7, 0, 0]"] ;
41 -> 51 ;
52 [label="X[7] <= 822.0\nentropy = 0.753\nsamples = 114\nvalue = [10, 97, 7, 0]"] ;
40 -> 52 ;
53 [label="X[8] <= 1998.0\nentropy = 0.985\nsamples = 21\nvalue = [9, 12, 0, 0]"] ;
52 -> 53 ;
54 [label="X[0] <= 836.5\nentropy = 0.94\nsamples = 14\nvalue = [9, 5, 0, 0]"] ;
53 -> 54 ;
55 [label="entropy = 0.0\nsamples = 9\nvalue = [9, 0, 0, 0]"] ;
54 -> 55 ;
56 [label="entropy = 0.0\nsamples = 5\nvalue = [0, 5, 0, 0]"] ;
54 -> 56 ;
57 [label="entropy = 0.0\nsamples = 7\nvalue = [0, 7, 0, 0]"] ;
53 -> 57 ;
58 [label="X[8] <= 2068.0\nentropy = 0.47\nsamples = 93\nvalue = [1, 85, 7, 0]"] ;
52 -> 58 ;
59 [label="X[6] <= 41.0\nentropy = 0.111\nsamples = 68\nvalue = [1, 67, 0, 0]"] ;
58 -> 59 ;
60 [label="X[0] <= 912.5\nentropy = 1.0\nsamples = 2\nvalue = [1, 1, 0, 0]"] ;
59 -> 60 ;
61 [label="entropy = 0.0\nsamples = 1\nvalue = [1, 0, 0, 0]"] ;
60 -> 61 ;
62 [label="entropy = 0.0\nsamples = 1\nvalue = [0, 1, 0, 0]"] ;
60 -> 62 ;
63 [label="entropy = 0.0\nsamples = 66\nvalue = [0, 66, 0, 0]"] ;
59 -> 63 ;
64 [label="X[6] <= 599.0\nentropy = 0.855\nsamples = 25\nvalue = [0, 18, 7, 0]"] ;
58 -> 64 ;
65 [label="entropy = 0.0\nsamples = 17\nvalue = [0, 17, 0, 0]"] ;
64 -> 65 ;
66 [label="X[3] <= 14.5\nentropy = 0.544\nsamples = 8\nvalue = [0, 1, 7, 0]"] ;
64 -> 66 ;
67 [label="entropy = 0.0\nsamples = 1\nvalue = [0, 1, 0, 0]"] ;
66 -> 67 ;
68 [label="entropy = 0.0\nsamples = 7\nvalue = [0, 0, 7, 0]"] ;
66 -> 68 ;
69 [label="X[7] <= 1127.0\nentropy = 1.034\nsamples = 247\nvalue = [8, 172, 67, 0]"] ;
39 -> 69 ;
70 [label="X[8] <= 1673.5\nentropy = 0.644\nsamples = 99\nvalue = [8, 87, 4, 0]"] ;
69 -> 70 ;
71 [label="X[0] <= 1366.5\nentropy = 0.619\nsamples = 52\nvalue = [8, 44, 0, 0]"] ;
70 -> 71 ;
72 [label="X[10] <= 105055.0\nentropy = 0.989\nsamples = 16\nvalue = [7, 9, 0, 0]"] ;
71 -> 72 ;
73 [label="X[8] <= 1300.5\nentropy = 0.684\nsamples = 11\nvalue = [2, 9, 0, 0]"] ;
72 -> 73 ;
74 [label="X[3] <= 13.5\nentropy = 0.918\nsamples = 3\nvalue = [2, 1, 0, 0]"] ;
73 -> 74 ;
75 [label="entropy = 0.0\nsamples = 1\nvalue = [0, 1, 0, 0]"] ;
74 -> 75 ;
76 [label="entropy = 0.0\nsamples = 2\nvalue = [2, 0, 0, 0]"] ;
74 -> 76 ;
77 [label="entropy = 0.0\nsamples = 8\nvalue = [0, 8, 0, 0]"] ;
73 -> 77 ;
78 [label="entropy = 0.0\nsamples = 5\nvalue = [5, 0, 0, 0]"] ;
72 -> 78 ;
79 [label="X[10] <= 111106.0\nentropy = 0.183\nsamples = 36\nvalue = [1, 35, 0, 0]"] ;
71 -> 79 ;
80 [label="entropy = 0.0\nsamples = 35\nvalue = [0, 35, 0, 0]"] ;
79 -> 80 ;
81 [label="entropy = 0.0\nsamples = 1\nvalue = [1, 0, 0, 0]"] ;
79 -> 81 ;
82 [label="X[8] <= 2181.0\nentropy = 0.42\nsamples = 47\nvalue = [0, 43, 4, 0]"] ;
70 -> 82 ;
83 [label="X[10] <= 110105.5\nentropy = 0.172\nsamples = 39\nvalue = [0, 38, 1, 0]"] ;
82 -> 83 ;
84 [label="entropy = 0.0\nsamples = 33\nvalue = [0, 33, 0, 0]"] ;
83 -> 84 ;
85 [label="X[2] <= 7.0\nentropy = 0.65\nsamples = 6\nvalue = [0, 5, 1, 0]"] ;
83 -> 85 ;
86 [label="entropy = 0.0\nsamples = 4\nvalue = [0, 4, 0, 0]"] ;
85 -> 86 ;
87 [label="X[2] <= 9.5\nentropy = 1.0\nsamples = 2\nvalue = [0, 1, 1, 0]"] ;
85 -> 87 ;
88 [label="entropy = 0.0\nsamples = 1\nvalue = [0, 0, 1, 0]"] ;
87 -> 88 ;
89 [label="entropy = 0.0\nsamples = 1\nvalue = [0, 1, 0, 0]"] ;
87 -> 89 ;
90 [label="X[7] <= 737.0\nentropy = 0.954\nsamples = 8\nvalue = [0, 5, 3, 0]"] ;
82 -> 90 ;
91 [label="entropy = 0.0\nsamples = 5\nvalue = [0, 5, 0, 0]"] ;
90 -> 91 ;
92 [label="entropy = 0.0\nsamples = 3\nvalue = [0, 0, 3, 0]"] ;
90 -> 92 ;
93 [label="X[8] <= 1631.0\nentropy = 0.984\nsamples = 148\nvalue = [0, 85, 63, 0]"] ;
69 -> 93 ;
94 [label="X[6] <= 1549.0\nentropy = 0.573\nsamples = 81\nvalue = [0, 70, 11, 0]"] ;
93 -> 94 ;
95 [label="X[6] <= 962.5\nentropy = 0.319\nsamples = 69\nvalue = [0, 65, 4, 0]"] ;
94 -> 95 ;
96 [label="entropy = 0.0\nsamples = 41\nvalue = [0, 41, 0, 0]"] ;
95 -> 96 ;
97 [label="X[0] <= 1687.0\nentropy = 0.592\nsamples = 28\nvalue = [0, 24, 4, 0]"] ;
95 -> 97 ;
98 [label="entropy = 0.0\nsamples = 15\nvalue = [0, 15, 0, 0]"] ;
97 -> 98 ;
99 [label="X[8] <= 1420.5\nentropy = 0.89\nsamples = 13\nvalue = [0, 9, 4, 0]"] ;
97 -> 99 ;
100 [label="X[7] <= 1963.5\nentropy = 0.469\nsamples = 10\nvalue = [0, 9, 1, 0]"] ;
99 -> 100 ;
101 [label="entropy = 0.0\nsamples = 9\nvalue = [0, 9, 0, 0]"] ;
100 -> 101 ;
102 [label="entropy = 0.0\nsamples = 1\nvalue = [0, 0, 1, 0]"] ;
100 -> 102 ;
103 [label="entropy = 0.0\nsamples = 3\nvalue = [0, 0, 3, 0]"] ;
99 -> 103 ;
104 [label="X[1] <= 1.3\nentropy = 0.98\nsamples = 12\nvalue = [0, 5, 7, 0]"] ;
94 -> 104 ;
105 [label="entropy = 0.0\nsamples = 5\nvalue = [0, 0, 5, 0]"] ;
104 -> 105 ;
106 [label="X[9] <= 6.5\nentropy = 0.863\nsamples = 7\nvalue = [0, 5, 2, 0]"] ;
104 -> 106 ;
107 [label="entropy = 0.0\nsamples = 4\nvalue = [0, 4, 0, 0]"] ;
106 -> 107 ;
108 [label="X[8] <= 1168.0\nentropy = 0.918\nsamples = 3\nvalue = [0, 1, 2, 0]"] ;
106 -> 108 ;
109 [label="entropy = 0.0\nsamples = 1\nvalue = [0, 1, 0, 0]"] ;
108 -> 109 ;
110 [label="entropy = 0.0\nsamples = 2\nvalue = [0, 0, 2, 0]"] ;
108 -> 110 ;
111 [label="X[0] <= 1622.0\nentropy = 0.767\nsamples = 67\nvalue = [0, 15, 52, 0]"] ;
93 -> 111 ;
112 [label="X[8] <= 1954.0\nentropy = 0.954\nsamples = 40\nvalue = [0, 15, 25, 0]"] ;
111 -> 112 ;
113 [label="X[6] <= 1269.5\nentropy = 0.831\nsamples = 19\nvalue = [0, 14, 5, 0]"] ;
112 -> 113 ;
114 [label="X[5] <= 2.0\nentropy = 0.353\nsamples = 15\nvalue = [0, 14, 1, 0]"] ;
113 -> 114 ;
115 [label="X[0] <= 1524.5\nentropy = 1.0\nsamples = 2\nvalue = [0, 1, 1, 0]"] ;
114 -> 115 ;
116 [label="entropy = 0.0\nsamples = 1\nvalue = [0, 1, 0, 0]"] ;
115 -> 116 ;
117 [label="entropy = 0.0\nsamples = 1\nvalue = [0, 0, 1, 0]"] ;
115 -> 117 ;
118 [label="entropy = 0.0\nsamples = 13\nvalue = [0, 13, 0, 0]"] ;
114 -> 118 ;
119 [label="entropy = 0.0\nsamples = 4\nvalue = [0, 0, 4, 0]"] ;
113 -> 119 ;
120 [label="X[8] <= 2223.0\nentropy = 0.276\nsamples = 21\nvalue = [0, 1, 20, 0]"] ;
112 -> 120 ;
121 [label="entropy = 0.0\nsamples = 20\nvalue = [0, 0, 20, 0]"] ;
120 -> 121 ;
122 [label="entropy = 0.0\nsamples = 1\nvalue = [0, 1, 0, 0]"] ;
120 -> 122 ;
123 [label="entropy = 0.0\nsamples = 27\nvalue = [0, 0, 27, 0]"] ;
111 -> 123 ;
124 [label="X[8] <= 3017.0\nentropy = 1.249\nsamples = 669\nvalue = [0, 38, 279, 352]"] ;
0 -> 124 [labeldistance=2.5, labelangle=-45, headlabel="False"] ;
125 [label="X[0] <= 1364.5\nentropy = 1.172\nsamples = 308\nvalue = [0, 38, 216, 54]"] ;
124 -> 125 ;
126 [label="X[8] <= 2600.5\nentropy = 0.962\nsamples = 186\nvalue = [0, 37, 141, 8]"] ;
125 -> 126 ;
127 [label="X[6] <= 550.0\nentropy = 1.051\nsamples = 88\nvalue = [0, 35, 52, 1]"] ;
126 -> 127 ;
128 [label="X[0] <= 1174.0\nentropy = 0.911\nsamples = 49\nvalue = [0, 33, 16, 0]"] ;
127 -> 128 ;
129 [label="X[7] <= 1246.0\nentropy = 0.533\nsamples = 33\nvalue = [0, 29, 4, 0]"] ;
128 -> 129 ;
130 [label="entropy = 0.0\nsamples = 22\nvalue = [0, 22, 0, 0]"] ;
129 -> 130 ;
131 [label="X[6] <= 369.0\nentropy = 0.946\nsamples = 11\nvalue = [0, 7, 4, 0]"] ;
129 -> 131 ;
132 [label="entropy = 0.0\nsamples = 7\nvalue = [0, 7, 0, 0]"] ;
131 -> 132 ;
133 [label="entropy = 0.0\nsamples = 4\nvalue = [0, 0, 4, 0]"] ;
131 -> 133 ;
134 [label="X[7] <= 659.0\nentropy = 0.811\nsamples = 16\nvalue = [0, 4, 12, 0]"] ;
128 -> 134 ;
135 [label="entropy = 0.0\nsamples = 4\nvalue = [0, 4, 0, 0]"] ;
134 -> 135 ;
136 [label="entropy = 0.0\nsamples = 12\nvalue = [0, 0, 12, 0]"] ;
134 -> 136 ;
137 [label="X[7] <= 1971.5\nentropy = 0.462\nsamples = 39\nvalue = [0, 2, 36, 1]"] ;
127 -> 137 ;
138 [label="X[7] <= 1215.5\nentropy = 0.297\nsamples = 38\nvalue = [0, 2, 36, 0]"] ;
137 -> 138 ;
139 [label="X[0] <= 815.0\nentropy = 0.918\nsamples = 6\nvalue = [0, 2, 4, 0]"] ;
138 -> 139 ;
140 [label="entropy = 0.0\nsamples = 2\nvalue = [0, 2, 0, 0]"] ;
139 -> 140 ;
141 [label="entropy = 0.0\nsamples = 4\nvalue = [0, 0, 4, 0]"] ;
139 -> 141 ;
142 [label="entropy = 0.0\nsamples = 32\nvalue = [0, 0, 32, 0]"] ;
138 -> 142 ;
143 [label="entropy = 0.0\nsamples = 1\nvalue = [0, 0, 0, 1]"] ;
137 -> 143 ;
144 [label="X[6] <= 983.5\nentropy = 0.513\nsamples = 98\nvalue = [0, 2, 89, 7]"] ;
126 -> 144 ;
145 [label="X[7] <= 612.5\nentropy = 0.279\nsamples = 75\nvalue = [0, 2, 72, 1]"] ;
144 -> 145 ;
146 [label="X[1] <= 2.15\nentropy = 0.971\nsamples = 5\nvalue = [0, 2, 3, 0]"] ;
145 -> 146 ;
147 [label="entropy = 0.0\nsamples = 3\nvalue = [0, 0, 3, 0]"] ;
146 -> 147 ;
148 [label="entropy = 0.0\nsamples = 2\nvalue = [0, 2, 0, 0]"] ;
146 -> 148 ;
149 [label="X[8] <= 2981.5\nentropy = 0.108\nsamples = 70\nvalue = [0, 0, 69, 1]"] ;
145 -> 149 ;
150 [label="entropy = 0.0\nsamples = 67\nvalue = [0, 0, 67, 0]"] ;
149 -> 150 ;
151 [label="X[7] <= 1027.0\nentropy = 0.918\nsamples = 3\nvalue = [0, 0, 2, 1]"] ;
149 -> 151 ;
152 [label="entropy = 0.0\nsamples = 2\nvalue = [0, 0, 2, 0]"] ;
151 -> 152 ;
153 [label="entropy = 0.0\nsamples = 1\nvalue = [0, 0, 0, 1]"] ;
151 -> 153 ;
154 [label="X[8] <= 2740.5\nentropy = 0.828\nsamples = 23\nvalue = [0, 0, 17, 6]"] ;
144 -> 154 ;
155 [label="entropy = 0.0\nsamples = 9\nvalue = [0, 0, 9, 0]"] ;
154 -> 155 ;
156 [label="X[0] <= 988.5\nentropy = 0.985\nsamples = 14\nvalue = [0, 0, 8, 6]"] ;
154 -> 156 ;
157 [label="X[4] <= 3.5\nentropy = 0.845\nsamples = 11\nvalue = [0, 0, 8, 3]"] ;
156 -> 157 ;
158 [label="entropy = 0.0\nsamples = 5\nvalue = [0, 0, 5, 0]"] ;
157 -> 158 ;
159 [label="X[3] <= 12.0\nentropy = 1.0\nsamples = 6\nvalue = [0, 0, 3, 3]"] ;
157 -> 159 ;
160 [label="entropy = 0.0\nsamples = 3\nvalue = [0, 0, 3, 0]"] ;
159 -> 160 ;
161 [label="entropy = 0.0\nsamples = 3\nvalue = [0, 0, 0, 3]"] ;
159 -> 161 ;
162 [label="entropy = 0.0\nsamples = 3\nvalue = [0, 0, 0, 3]"] ;
156 -> 162 ;
163 [label="X[7] <= 1198.5\nentropy = 1.019\nsamples = 122\nvalue = [0, 1, 75, 46]"] ;
125 -> 163 ;
164 [label="X[8] <= 2864.0\nentropy = 0.522\nsamples = 62\nvalue = [0, 1, 56, 5]"] ;
163 -> 164 ;
165 [label="X[10] <= 111105.5\nentropy = 0.27\nsamples = 53\nvalue = [0, 1, 51, 1]"] ;
164 -> 165 ;
166 [label="X[6] <= 808.0\nentropy = 0.137\nsamples = 52\nvalue = [0, 0, 51, 1]"] ;
165 -> 166 ;
167 [label="entropy = 0.0\nsamples = 48\nvalue = [0, 0, 48, 0]"] ;
166 -> 167 ;
168 [label="X[4] <= 4.0\nentropy = 0.811\nsamples = 4\nvalue = [0, 0, 3, 1]"] ;
166 -> 168 ;
169 [label="entropy = 0.0\nsamples = 3\nvalue = [0, 0, 3, 0]"] ;
168 -> 169 ;
170 [label="entropy = 0.0\nsamples = 1\nvalue = [0, 0, 0, 1]"] ;
168 -> 170 ;
171 [label="entropy = 0.0\nsamples = 1\nvalue = [0, 1, 0, 0]"] ;
165 -> 171 ;
172 [label="X[7] <= 665.0\nentropy = 0.991\nsamples = 9\nvalue = [0, 0, 5, 4]"] ;
164 -> 172 ;
173 [label="entropy = 0.0\nsamples = 4\nvalue = [0, 0, 4, 0]"] ;
172 -> 173 ;
174 [label="X[8] <= 2978.5\nentropy = 0.722\nsamples = 5\nvalue = [0, 0, 1, 4]"] ;
172 -> 174 ;
175 [label="entropy = 0.0\nsamples = 4\nvalue = [0, 0, 0, 4]"] ;
174 -> 175 ;
176 [label="entropy = 0.0\nsamples = 1\nvalue = [0, 0, 1, 0]"] ;
174 -> 176 ;
177 [label="X[6] <= 614.5\nentropy = 0.901\nsamples = 60\nvalue = [0, 0, 19, 41]"] ;
163 -> 177 ;
178 [label="X[0] <= 1626.5\nentropy = 0.934\nsamples = 20\nvalue = [0, 0, 13, 7]"] ;
177 -> 178 ;
179 [label="entropy = 0.0\nsamples = 7\nvalue = [0, 0, 7, 0]"] ;
178 -> 179 ;
180 [label="X[8] <= 2645.5\nentropy = 0.996\nsamples = 13\nvalue = [0, 0, 6, 7]"] ;
178 -> 180 ;
181 [label="X[2] <= 9.0\nentropy = 0.592\nsamples = 7\nvalue = [0, 0, 6, 1]"] ;
180 -> 181 ;
182 [label="entropy = 0.0\nsamples = 6\nvalue = [0, 0, 6, 0]"] ;
181 -> 182 ;
183 [label="entropy = 0.0\nsamples = 1\nvalue = [0, 0, 0, 1]"] ;
181 -> 183 ;
184 [label="entropy = 0.0\nsamples = 6\nvalue = [0, 0, 0, 6]"] ;
180 -> 184 ;
185 [label="X[8] <= 2627.5\nentropy = 0.61\nsamples = 40\nvalue = [0, 0, 6, 34]"] ;
177 -> 185 ;
186 [label="X[6] <= 1303.0\nentropy = 0.881\nsamples = 20\nvalue = [0, 0, 6, 14]"] ;
185 -> 186 ;
187 [label="X[4] <= 5.0\nentropy = 0.996\nsamples = 13\nvalue = [0, 0, 6, 7]"] ;
186 -> 187 ;
188 [label="X[10] <= 106100.0\nentropy = 0.65\nsamples = 6\nvalue = [0, 0, 5, 1]"] ;
187 -> 188 ;
189 [label="entropy = 0.0\nsamples = 5\nvalue = [0, 0, 5, 0]"] ;
188 -> 189 ;
190 [label="entropy = 0.0\nsamples = 1\nvalue = [0, 0, 0, 1]"] ;
188 -> 190 ;
191 [label="X[0] <= 1545.5\nentropy = 0.592\nsamples = 7\nvalue = [0, 0, 1, 6]"] ;
187 -> 191 ;
192 [label="entropy = 0.0\nsamples = 1\nvalue = [0, 0, 1, 0]"] ;
191 -> 192 ;
193 [label="entropy = 0.0\nsamples = 6\nvalue = [0, 0, 0, 6]"] ;
191 -> 193 ;
194 [label="entropy = 0.0\nsamples = 7\nvalue = [0, 0, 0, 7]"] ;
186 -> 194 ;
195 [label="entropy = 0.0\nsamples = 20\nvalue = [0, 0, 0, 20]"] ;
185 -> 195 ;
196 [label="X[0] <= 1148.5\nentropy = 0.668\nsamples = 361\nvalue = [0, 0, 63, 298]"] ;
124 -> 196 ;
197 [label="X[7] <= 853.0\nentropy = 0.942\nsamples = 156\nvalue = [0, 0, 56, 100]"] ;
196 -> 197 ;
198 [label="X[8] <= 3541.0\nentropy = 0.75\nsamples = 42\nvalue = [0, 0, 33, 9]"] ;
197 -> 198 ;
199 [label="entropy = 0.0\nsamples = 24\nvalue = [0, 0, 24, 0]"] ;
198 -> 199 ;
200 [label="X[0] <= 741.0\nentropy = 1.0\nsamples = 18\nvalue = [0, 0, 9, 9]"] ;
198 -> 200 ;
201 [label="X[6] <= 191.0\nentropy = 0.89\nsamples = 13\nvalue = [0, 0, 9, 4]"] ;
200 -> 201 ;
202 [label="entropy = 0.0\nsamples = 6\nvalue = [0, 0, 6, 0]"] ;
201 -> 202 ;
203 [label="X[7] <= 622.0\nentropy = 0.985\nsamples = 7\nvalue = [0, 0, 3, 4]"] ;
201 -> 203 ;
204 [label="entropy = 0.0\nsamples = 3\nvalue = [0, 0, 3, 0]"] ;
203 -> 204 ;
205 [label="entropy = 0.0\nsamples = 4\nvalue = [0, 0, 0, 4]"] ;
203 -> 205 ;
206 [label="entropy = 0.0\nsamples = 5\nvalue = [0, 0, 0, 5]"] ;
200 -> 206 ;
207 [label="X[8] <= 3569.5\nentropy = 0.725\nsamples = 114\nvalue = [0, 0, 23, 91]"] ;
197 -> 207 ;
208 [label="X[6] <= 537.5\nentropy = 0.918\nsamples = 69\nvalue = [0, 0, 23, 46]"] ;
207 -> 208 ;
209 [label="X[10] <= 5560.5\nentropy = 0.958\nsamples = 29\nvalue = [0, 0, 18, 11]"] ;
208 -> 209 ;
210 [label="entropy = 0.0\nsamples = 6\nvalue = [0, 0, 0, 6]"] ;
209 -> 210 ;
211 [label="X[7] <= 1688.0\nentropy = 0.755\nsamples = 23\nvalue = [0, 0, 18, 5]"] ;
209 -> 211 ;
212 [label="X[1] <= 0.6\nentropy = 0.31\nsamples = 18\nvalue = [0, 0, 17, 1]"] ;
211 -> 212 ;
213 [label="X[10] <= 101105.5\nentropy = 0.918\nsamples = 3\nvalue = [0, 0, 2, 1]"] ;
212 -> 213 ;
214 [label="entropy = 0.0\nsamples = 2\nvalue = [0, 0, 2, 0]"] ;
213 -> 214 ;
215 [label="entropy = 0.0\nsamples = 1\nvalue = [0, 0, 0, 1]"] ;
213 -> 215 ;
216 [label="entropy = 0.0\nsamples = 15\nvalue = [0, 0, 15, 0]"] ;
212 -> 216 ;
217 [label="X[0] <= 823.0\nentropy = 0.722\nsamples = 5\nvalue = [0, 0, 1, 4]"] ;
211 -> 217 ;
218 [label="entropy = 0.0\nsamples = 1\nvalue = [0, 0, 1, 0]"] ;
217 -> 218 ;
219 [label="entropy = 0.0\nsamples = 4\nvalue = [0, 0, 0, 4]"] ;
217 -> 219 ;
220 [label="X[9] <= 7.5\nentropy = 0.544\nsamples = 40\nvalue = [0, 0, 5, 35]"] ;
208 -> 220 ;
221 [label="X[8] <= 3193.5\nentropy = 0.874\nsamples = 17\nvalue = [0, 0, 5, 12]"] ;
220 -> 221 ;
222 [label="X[6] <= 1327.0\nentropy = 0.722\nsamples = 5\nvalue = [0, 0, 4, 1]"] ;
221 -> 222 ;
223 [label="entropy = 0.0\nsamples = 4\nvalue = [0, 0, 4, 0]"] ;
222 -> 223 ;
224 [label="entropy = 0.0\nsamples = 1\nvalue = [0, 0, 0, 1]"] ;
222 -> 224 ;
225 [label="X[0] <= 616.0\nentropy = 0.414\nsamples = 12\nvalue = [0, 0, 1, 11]"] ;
221 -> 225 ;
226 [label="X[4] <= 1.5\nentropy = 1.0\nsamples = 2\nvalue = [0, 0, 1, 1]"] ;
225 -> 226 ;
227 [label="entropy = 0.0\nsamples = 1\nvalue = [0, 0, 0, 1]"] ;
226 -> 227 ;
228 [label="entropy = 0.0\nsamples = 1\nvalue = [0, 0, 1, 0]"] ;
226 -> 228 ;
229 [label="entropy = 0.0\nsamples = 10\nvalue = [0, 0, 0, 10]"] ;
225 -> 229 ;
230 [label="entropy = 0.0\nsamples = 23\nvalue = [0, 0, 0, 23]"] ;
220 -> 230 ;
231 [label="entropy = 0.0\nsamples = 45\nvalue = [0, 0, 0, 45]"] ;
207 -> 231 ;
232 [label="X[8] <= 3314.5\nentropy = 0.215\nsamples = 205\nvalue = [0, 0, 7, 198]"] ;
196 -> 232 ;
233 [label="X[6] <= 508.5\nentropy = 0.57\nsamples = 52\nvalue = [0, 0, 7, 45]"] ;
232 -> 233 ;
234 [label="X[0] <= 1704.0\nentropy = 0.918\nsamples = 21\nvalue = [0, 0, 7, 14]"] ;
233 -> 234 ;
235 [label="X[8] <= 3195.0\nentropy = 0.98\nsamples = 12\nvalue = [0, 0, 7, 5]"] ;
234 -> 235 ;
236 [label="X[7] <= 1582.0\nentropy = 0.592\nsamples = 7\nvalue = [0, 0, 6, 1]"] ;
235 -> 236 ;
237 [label="entropy = 0.0\nsamples = 6\nvalue = [0, 0, 6, 0]"] ;
236 -> 237 ;
238 [label="entropy = 0.0\nsamples = 1\nvalue = [0, 0, 0, 1]"] ;
236 -> 238 ;
239 [label="X[6] <= 60.0\nentropy = 0.722\nsamples = 5\nvalue = [0, 0, 1, 4]"] ;
235 -> 239 ;
240 [label="entropy = 0.0\nsamples = 1\nvalue = [0, 0, 1, 0]"] ;
239 -> 240 ;
241 [label="entropy = 0.0\nsamples = 4\nvalue = [0, 0, 0, 4]"] ;
239 -> 241 ;
242 [label="entropy = 0.0\nsamples = 9\nvalue = [0, 0, 0, 9]"] ;
234 -> 242 ;
243 [label="entropy = 0.0\nsamples = 31\nvalue = [0, 0, 0, 31]"] ;
233 -> 243 ;
244 [label="entropy = 0.0\nsamples = 153\nvalue = [0, 0, 0, 153]"] ;
232 -> 244 ;
}
